{
  "schema": {
    "name": "multi_arm_response_bundle_v2",
    "version": "v2.0"
  },
  "phase": "V.2_EXPLORATORY",
  "status": "exploratory",
  "no_global_inversion_claimed": true,
  "lab_arm_screened": true,
  "created_at_utc": "2026-01-02T21:34:35.589064+00:00",
  "git_commit": "ddade6ddeae49c7b575008907d421e52f666a7d8",
  "common_basis": {
    "type": "bulk_eigenmodes",
    "artifact": "data/internal/bulk_eigenmodes_derived.json",
    "modes": 10
  },
  "arms": {
    "GROWTH_BOSS": {
      "operator_artifact": null,
      "operator_json": "data/internal/response_operator_R_nontoy.json",
      "operator_label": "Non-toy growth response operator R_{n,b} = d f\u03c38(z_b) / d a_n (BOSS DR12 bins)",
      "toy_model": false,
      "status": "COMPUTED_NUMERICAL",
      "R_shape": [
        10,
        3
      ],
      "mode_norms": {
        "rms_unweighted": [
          0.0005444571550478733,
          0.010299988647827406,
          0.044245310658297586,
          0.10254270680907551,
          0.16818796166331132,
          0.2310220320087925,
          0.2712758241112943,
          0.3104684993688792,
          0.3295911225372038,
          0.36355344009138635
        ],
        "norm_weighted": [
          0.011311075643067969,
          0.21471066383685733,
          0.9246500807471612,
          2.1475948035850254,
          3.5241304281566372,
          4.829063015026336,
          5.627464497370281,
          6.3429138488024925,
          6.578640568726315,
          7.052758750506644
        ]
      },
      "residual": {
        "definition": "obs_f\u03c38 - pred_f\u03c38 at BOSS DR12 z bins",
        "vector": [
          0.028972043259754776,
          -0.011857338677668083,
          -0.046144975550495404
        ],
        "weighting": {
          "kind": "full_inv_cov"
        }
      },
      "modal_projection": {
        "unweighted": [
          -2.7133714820711577e-05,
          -0.0005177678255772981,
          -0.0022352489165378187,
          0.005192973946149706,
          -0.008476469817915368,
          -0.01144737065777196,
          0.012950435670317255,
          0.013830601542260347,
          -0.013167943422718834,
          -0.012483295317512367
        ],
        "weighted": [
          -0.01948714117495108,
          -0.3725114273593837,
          -1.6107837246917747,
          3.7490828314423004,
          -6.130596302871703,
          -8.292760529667417,
          9.387641329079464,
          10.010379906399802,
          -9.474061604124113,
          -8.858236502604775
        ]
      }
    },
    "DESI": {
      "operator_artifact": null,
      "operator_json": "data/internal/response_operator_R_desi_nontoy.json",
      "operator_label": "Non-toy DESI response operator R_DESI[n,i] = d \u03b4_DESI(z_i) / d a_n, \u03b4_DESI=\u0394f\u03c38 (data/internal/desi_residual.json)",
      "toy_model": false,
      "status": "COMPUTED_NUMERICAL",
      "R_shape": [
        10,
        6
      ],
      "mode_norms": {
        "rms_unweighted": [
          0.00192372789108708,
          0.03855169344261677,
          0.17703103666840006,
          0.4458103586315622,
          0.8047542983994456,
          1.2429339028477542,
          1.6533252818247743,
          2.1532137746443953,
          2.5520866813866605,
          3.0608002844885087
        ],
        "norm_weighted": [
          0.05858845556376491,
          1.1688632629775706,
          5.33771121637792,
          13.354159651037854,
          23.935333461753025,
          36.66825994814968,
          48.376784368855155,
          62.481439184338804,
          73.50219094636073,
          87.5489464306075
        ]
      },
      "residual": {
        "definition": "\u0394f\u03c38(z) from data/internal/desi_residual.json",
        "vector": [
          -0.006520132216829011,
          -0.03277525824774241,
          -0.05906457561056938,
          -0.06295020002738244,
          -0.05401180339244188,
          -0.03799332250789261
        ],
        "weighting": {
          "kind": "diag_invvar"
        }
      },
      "modal_projection": {
        "unweighted": [
          0.0004026561107697558,
          0.007994518484583981,
          0.03629234283782323,
          -0.09012789376105002,
          0.1601561291566077,
          0.24274470218987,
          -0.31653320621438896,
          -0.4035850958950336,
          0.46879243613554733,
          0.551351667010743
        ],
        "weighted": [
          0.5267702735226393,
          10.358097472092462,
          46.478979569577426,
          -113.7681084330442,
          198.76531335630392,
          294.9485372135872,
          -375.6681611825076,
          -466.53766353405354,
          527.7729305672719,
          604.3734076472786
        ]
      }
    },
    "SPARC": {
      "operator_artifact": null,
      "operator_json": "data/internal/response_operator_R_sparc_nontoy.json",
      "operator_label": "Non-toy SPARC response operator R[n,g] = d chi2_holo(g) / d a_n (per galaxy)",
      "toy_model": false,
      "status": "COMPUTED_NUMERICAL",
      "R_shape": [
        10,
        175
      ],
      "mode_norms": {
        "rms_unweighted": [
          0.02171470579149074,
          0.03257168555397141,
          0.05467973993437922,
          0.19475121664956904,
          0.44238656094535356,
          0.7784158928322968,
          1.118603858642873,
          1.534331379042706,
          1.8836060091188511,
          2.3172326059876682
        ],
        "norm_weighted": [
          0.02171470579149074,
          0.03257168555397141,
          0.05467973993437922,
          0.19475121664956904,
          0.44238656094535356,
          0.7784158928322968,
          1.118603858642873,
          1.534331379042706,
          1.8836060091188511,
          2.3172326059876682
        ]
      },
      "residual": {
        "definition": "\u0394\u03c7\u00b2 per galaxy = \u03c7\u00b2_holo - \u03c7\u00b2_newton (exploratory residual)",
        "vector": [
          -3.9687657739490136,
          -0.2816350076265461,
          -0.8314931727895729,
          -2.850080611897204,
          -1.3404860692601726,
          -2.5402115391781095,
          -2.424366119147601,
          -0.8755190007689775,
          -1.029496735495798,
          -0.2416019192607579,
          -0.9009728216672414,
          -1.6142286687396243,
          -8.200216907691644,
          -0.09326427250891209,
          -4.230996414425047,
          -0.029463458536957497,
          -1.2439786979648617,
          -1.6424973444315407,
          -0.1391887885365073,
          -2.357170530840411,
          -1.416377184049127,
          -2.8792264741993763,
          -8.132185443515052,
          -0.8737880840117587,
          -1.480948301811401,
          -0.6509277525267139,
          -0.8825245393444003,
          -4.126563643952256,
          -0.33154176840223726,
          -2.885440339486616,
          -10.262431936719723,
          -0.6435414626637375,
          -0.26769340054901614,
          -0.8496119886496237,
          -1.4314760767234267,
          -1.7447010767339695,
          -2.002068314132597,
          -2.8623752330121546,
          -0.5404907584551645,
          -1.9402661751199521,
          -5.669794802442452,
          -2.303844566651045,
          -2.898406366411104,
          -1.9797311861797948,
          -4.31070014614023,
          -0.12947876758810678,
          -2.9673194486932886,
          -18.974680536886638,
          -14.682592904419495,
          -0.7084404164721314,
          -1.2259545337585014,
          0.3414850495433561,
          -5.81858828870925,
          -5.385090830779114,
          -2.49674684052257,
          -0.3318725110703661,
          -5.961973778870336,
          -0.8902510706352689,
          -3.2593838495141156,
          -0.19187301486607156,
          -0.4038019894119298,
          -0.33646375660216316,
          -0.06046693070622762,
          -0.08771826145585138,
          -0.07593591618354062,
          -0.08154028045229034,
          -0.6437761869751892,
          -0.33187870350412185,
          -0.2751410969490504,
          -2.1182434063408464,
          -1.3340451026658722,
          -0.14159786545731412,
          -0.06607663452302381,
          -0.681390308445541,
          -1.035893406755513,
          -1.5554050353095592,
          -8.416565296293776,
          -8.036017756076355,
          -0.6525908170955308,
          -0.9725437503656176,
          -1.2765933986832136,
          -2.400763828990206,
          -0.40283803192458556,
          -1.468753140990537,
          -0.1655820674148233,
          -1.3550240111048886,
          -1.860461042967454,
          -0.7935052816977476,
          -2.8214060311059805,
          -0.8415969181629939,
          -0.506655651045683,
          -1.3740659874694872,
          -2.534807618374075,
          -5.398149160913861,
          -0.5034635408506317,
          -0.08902590876046104,
          -4.23936427220926,
          -0.22964016010596466,
          -0.607795830956951,
          -3.280401747643735,
          -0.659959182602276,
          -0.9421737335231197,
          -2.8654334522255724,
          -0.001370955835939186,
          -1.2416642912916618,
          -11.794605921557991,
          -1.0016020172637574,
          -0.4454011017807584,
          -1.1249068002529132,
          -4.497908866482942,
          -0.6041394403540683,
          -2.759568939144989,
          -9.500233062665108,
          -2.3525034431744247,
          -1.5126453566578193,
          -0.9371360501941036,
          -0.41440730999950914,
          -0.5127384236964947,
          -0.964362491630036,
          -1.6812009061122057,
          -0.07659718479046027,
          -2.2475830835661723,
          -3.6745590293678214,
          -0.7095588053437487,
          -2.793303051959846,
          -1.3611171711084145,
          -1.4727129366749558,
          -1.2007243878707177,
          -0.49481517258243657,
          -0.739678008016359,
          -2.832858967128775,
          -0.6019028044513677,
          -0.2605368266361907,
          -3.1548902334618067,
          -1.5390765446516428,
          -4.161862056883433,
          -0.4923590425006084,
          -0.5529757876153769,
          -0.08161943158071941,
          -0.43311743428209426,
          -2.402715548650633,
          -1.8638235232717189,
          -0.08968476695571964,
          -0.3403394194033864,
          -0.22694816596014755,
          0.004950080750670743,
          -0.29162405535703595,
          0.022723672520198634,
          -2.170680419659642,
          -3.026527933674821,
          -0.12565865466132117,
          -0.1703185717350948,
          -1.5837156827867949,
          -1.8837061363764598,
          -0.10767040147797508,
          -0.19107985106954234,
          -2.5749991658931064,
          -5.19884877480775,
          -1.666234672783684,
          -1.3069860425218343,
          -0.29499711939437656,
          -2.3259777854287886,
          -3.0670983335144753,
          -0.022648562739504913,
          -0.4293207547466492,
          -2.960019253666162,
          -23.842163060740926,
          -0.18053704562776174,
          -0.34353247091604056,
          -1.5175170521817072,
          -1.9597587053890355,
          -2.4912804431334536,
          -0.09745823211096938,
          -1.3850564671172698,
          -6.414806452288795
        ],
        "weighting": {
          "kind": "identity"
        }
      },
      "modal_projection": {
        "unweighted": [
          -7.875032251757105,
          -10.493830582147913,
          3.8621753122788043,
          -56.230466245428886,
          143.7142880945943,
          261.8604659117663,
          -381.4776802840722,
          -526.5169756492113,
          647.9410266586578,
          797.349721486852
        ],
        "weighted": [
          -7.875032251757105,
          -10.493830582147913,
          3.8621753122788043,
          -56.230466245428886,
          143.7142880945943,
          261.8604659117663,
          -381.4776802840722,
          -526.5169756492113,
          647.9410266586578,
          797.349721486852
        ]
      }
    },
    "ZETA": {
      "operator_artifact": null,
      "operator_json": "data/internal/response_operator_R_zeta_nontoy.json",
      "operator_label": "Non-toy \u03b6 response operator R_\u03b6[n] = d(m1/m0)/d a_n, observable=report.ratio_m1_over_m0",
      "toy_model": false,
      "status": "COMPUTED_NUMERICAL",
      "R_shape": [
        10,
        1
      ],
      "mode_norms": {
        "rms_unweighted": [
          0.3088396336892174,
          138.28783791271348,
          807.0067426071467,
          1024.8759795448627,
          1216.1837626793072,
          4292.634491458962,
          1445.0171902515976,
          7201.08906072712,
          10110.127122377193,
          535.4069005367492
        ],
        "norm_weighted": [
          0.3088396336892174,
          138.28783791271348,
          807.0067426071467,
          1024.8759795448627,
          1216.1837626793072,
          4292.634491458962,
          1445.0171902515976,
          7201.08906072712,
          10110.127122377193,
          535.4069005367492
        ]
      },
      "residual": {
        "definition": "self-consistency residual (baseline matched)",
        "vector": [
          0.0
        ],
        "weighting": {
          "kind": "identity"
        }
      },
      "modal_projection": {
        "unweighted": [
          0.0,
          0.0,
          0.0,
          0.0,
          0.0,
          0.0,
          0.0,
          0.0,
          0.0,
          0.0
        ],
        "weighted": [
          0.0,
          0.0,
          0.0,
          0.0,
          0.0,
          0.0,
          0.0,
          0.0,
          0.0,
          0.0
        ]
      }
    },
    "LAB_UV": {
      "operator_artifact": null,
      "operator_json": "data/internal/response_operator_R_lab_uv_nontoy.json",
      "operator_label": "Non-toy UV-screened lab response operator R_L[n] = d(mean_frequency_shift)/d a_n (mean of y_pred on the nist_comparison_uv reference grid)",
      "toy_model": false,
      "status": "COMPUTED_NUMERICAL",
      "R_shape": [
        10,
        1
      ],
      "mode_norms": {
        "rms_unweighted": [
          6.036016803045996e-05,
          6.46352904531966e-05,
          0.0005997502643961816,
          0.0015263536902454522,
          0.0024573409512507194,
          0.0031915440785179605,
          0.0035045282867629535,
          0.0037381520895662934,
          0.003662512285174113,
          0.0036472142993237977
        ],
        "norm_weighted": [
          6.036016803045996e-05,
          6.46352904531966e-05,
          0.0005997502643961816,
          0.0015263536902454522,
          0.0024573409512507194,
          0.0031915440785179605,
          0.0035045282867629535,
          0.0037381520895662934,
          0.003662512285174113,
          0.0036472142993237977
        ]
      },
      "residual": {
        "definition": "mean(y_obs - y_pred) from tools/electromagnetics/output/nist_comparison_uv.json",
        "vector": [
          -0.6806291260788556
        ],
        "weighting": {
          "kind": "identity"
        }
      },
      "modal_projection": {
        "unweighted": [
          -4.1082888416544843e-05,
          4.39926612550122e-05,
          0.0004082074983215357,
          -0.0010388807782789984,
          0.0016725378241275609,
          0.002172257857003826,
          -0.0023852840251380983,
          -0.002544295189871354,
          0.002492812535911129,
          0.002482400281171062
        ],
        "weighted": [
          -4.1082888416544843e-05,
          4.39926612550122e-05,
          0.0004082074983215357,
          -0.0010388807782789984,
          0.0016725378241275609,
          0.002172257857003826,
          -0.0023852840251380983,
          -0.002544295189871354,
          0.002492812535911129,
          0.002482400281171062
        ]
      }
    }
  },
  "residual_vectors": {
    "GROWTH_BOSS": {
      "z_bins": [
        0.38,
        0.51,
        0.61
      ],
      "vector": [
        0.028972043259754776,
        -0.011857338677668083,
        -0.046144975550495404
      ]
    },
    "DESI": {
      "z_bins": [
        0.15,
        0.35,
        0.55,
        0.75,
        0.95,
        1.15
      ],
      "vector": [
        -0.006520132216829011,
        -0.03277525824774241,
        -0.05906457561056938,
        -0.06295020002738244,
        -0.05401180339244188,
        -0.03799332250789261
      ]
    },
    "SPARC": {
      "galaxy_count": 175,
      "vector": [
        -3.9687657739490136,
        -0.2816350076265461,
        -0.8314931727895729,
        -2.850080611897204,
        -1.3404860692601726,
        -2.5402115391781095,
        -2.424366119147601,
        -0.8755190007689775,
        -1.029496735495798,
        -0.2416019192607579,
        -0.9009728216672414,
        -1.6142286687396243,
        -8.200216907691644,
        -0.09326427250891209,
        -4.230996414425047,
        -0.029463458536957497,
        -1.2439786979648617,
        -1.6424973444315407,
        -0.1391887885365073,
        -2.357170530840411,
        -1.416377184049127,
        -2.8792264741993763,
        -8.132185443515052,
        -0.8737880840117587,
        -1.480948301811401,
        -0.6509277525267139,
        -0.8825245393444003,
        -4.126563643952256,
        -0.33154176840223726,
        -2.885440339486616,
        -10.262431936719723,
        -0.6435414626637375,
        -0.26769340054901614,
        -0.8496119886496237,
        -1.4314760767234267,
        -1.7447010767339695,
        -2.002068314132597,
        -2.8623752330121546,
        -0.5404907584551645,
        -1.9402661751199521,
        -5.669794802442452,
        -2.303844566651045,
        -2.898406366411104,
        -1.9797311861797948,
        -4.31070014614023,
        -0.12947876758810678,
        -2.9673194486932886,
        -18.974680536886638,
        -14.682592904419495,
        -0.7084404164721314,
        -1.2259545337585014,
        0.3414850495433561,
        -5.81858828870925,
        -5.385090830779114,
        -2.49674684052257,
        -0.3318725110703661,
        -5.961973778870336,
        -0.8902510706352689,
        -3.2593838495141156,
        -0.19187301486607156,
        -0.4038019894119298,
        -0.33646375660216316,
        -0.06046693070622762,
        -0.08771826145585138,
        -0.07593591618354062,
        -0.08154028045229034,
        -0.6437761869751892,
        -0.33187870350412185,
        -0.2751410969490504,
        -2.1182434063408464,
        -1.3340451026658722,
        -0.14159786545731412,
        -0.06607663452302381,
        -0.681390308445541,
        -1.035893406755513,
        -1.5554050353095592,
        -8.416565296293776,
        -8.036017756076355,
        -0.6525908170955308,
        -0.9725437503656176,
        -1.2765933986832136,
        -2.400763828990206,
        -0.40283803192458556,
        -1.468753140990537,
        -0.1655820674148233,
        -1.3550240111048886,
        -1.860461042967454,
        -0.7935052816977476,
        -2.8214060311059805,
        -0.8415969181629939,
        -0.506655651045683,
        -1.3740659874694872,
        -2.534807618374075,
        -5.398149160913861,
        -0.5034635408506317,
        -0.08902590876046104,
        -4.23936427220926,
        -0.22964016010596466,
        -0.607795830956951,
        -3.280401747643735,
        -0.659959182602276,
        -0.9421737335231197,
        -2.8654334522255724,
        -0.001370955835939186,
        -1.2416642912916618,
        -11.794605921557991,
        -1.0016020172637574,
        -0.4454011017807584,
        -1.1249068002529132,
        -4.497908866482942,
        -0.6041394403540683,
        -2.759568939144989,
        -9.500233062665108,
        -2.3525034431744247,
        -1.5126453566578193,
        -0.9371360501941036,
        -0.41440730999950914,
        -0.5127384236964947,
        -0.964362491630036,
        -1.6812009061122057,
        -0.07659718479046027,
        -2.2475830835661723,
        -3.6745590293678214,
        -0.7095588053437487,
        -2.793303051959846,
        -1.3611171711084145,
        -1.4727129366749558,
        -1.2007243878707177,
        -0.49481517258243657,
        -0.739678008016359,
        -2.832858967128775,
        -0.6019028044513677,
        -0.2605368266361907,
        -3.1548902334618067,
        -1.5390765446516428,
        -4.161862056883433,
        -0.4923590425006084,
        -0.5529757876153769,
        -0.08161943158071941,
        -0.43311743428209426,
        -2.402715548650633,
        -1.8638235232717189,
        -0.08968476695571964,
        -0.3403394194033864,
        -0.22694816596014755,
        0.004950080750670743,
        -0.29162405535703595,
        0.022723672520198634,
        -2.170680419659642,
        -3.026527933674821,
        -0.12565865466132117,
        -0.1703185717350948,
        -1.5837156827867949,
        -1.8837061363764598,
        -0.10767040147797508,
        -0.19107985106954234,
        -2.5749991658931064,
        -5.19884877480775,
        -1.666234672783684,
        -1.3069860425218343,
        -0.29499711939437656,
        -2.3259777854287886,
        -3.0670983335144753,
        -0.022648562739504913,
        -0.4293207547466492,
        -2.960019253666162,
        -23.842163060740926,
        -0.18053704562776174,
        -0.34353247091604056,
        -1.5175170521817072,
        -1.9597587053890355,
        -2.4912804431334536,
        -0.09745823211096938,
        -1.3850564671172698,
        -6.414806452288795
      ]
    },
    "ZETA": {
      "scalar": true,
      "vector": [
        0.0
      ]
    },
    "LAB_UV": {
      "scalar": true,
      "vector": [
        -0.6806291260788556
      ]
    }
  },
  "products": {
    "heatmap_R_arm_mode_unweighted_png": "tools/phase_v2/output/heatmap_R_arm_mode_unweighted.png",
    "heatmap_R_arm_mode_weighted_png": "tools/phase_v2/output/heatmap_R_arm_mode_weighted.png",
    "residual_projection_modal_unweighted_png": "tools/phase_v2/output/residual_projection_modal_unweighted.png",
    "residual_projection_modal_weighted_png": "tools/phase_v2/output/residual_projection_modal_weighted.png",
    "arm_correlation_matrix_png": "tools/phase_v2/output/arm_correlation_matrix.png",
    "scatter_zeta_vs_desi_mode_norms_png": "tools/phase_v2/output/scatter_zeta_vs_desi_mode_norms.png"
  },
  "inputs_sha256": {
    "data/internal/response_operator_R_nontoy.json": "276f1f17fc431135c1edd82de25d8b702aceeb1bc174b4f0611332bd2dc94e7c",
    "data/internal/response_operator_R_sparc_nontoy.json": "a949019e200df8f41de8e7ce4b5b3311e739a2b1aebba6ed891378caf405721b",
    "data/internal/response_operator_R_desi_nontoy.json": "6ec1a38d41be39da99b4c07fcfb1788acb337bb73ed21fa271f5812125149d06",
    "data/internal/response_operator_R_zeta_nontoy.json": "c7e9137236e977e3d633faa00365209350b9fc9cb0e4f871e080d2e7374fd6f6",
    "data/internal/response_operator_R_lab_uv_nontoy.json": "d23ec9710a1243fd60ce81471f879634aba7f0bf7e7cbd99b97b8539606a11cd",
    "data/internal/desi_residual.json": "d2695410941f4b491f9cd9fbafa3f31d05ca60e434069c10c6fe678aac279051",
    "tools/electromagnetics/output/nist_comparison_uv.json": "248ffcb7ed3ea211ac281d1ad60571542c1788ee3ee391d1d37669cc4968577e"
  },
  "notes": [
    "This bundle is for visualization/diagnostics only; it does not claim or perform any global multi-arm inversion.",
    "Per-arm residual definitions are explicitly recorded; SPARC uses \u0394\u03c7\u00b2 as an exploratory residual.",
    "ZETA residual is zero by construction (baseline matched to canonical spectrum artifact).",
    "LAB_UV is explicitly UV-screened; the screening gate in the lab arm operator enforces near-zero response consistency."
  ]
}